tree
version=v2
num_class=1
num_tree_per_iteration=1
label_index=0
max_feature_idx=23
objective=binary sigmoid:1
feature_names=age_in_days meds_sulfonamides_count meds_anticholinergics_count COPD_by_chr hosps_total_duration ambulances_between_hospitals_c hosps_total_count diag_wheezing_dyspnea_count meds_glucocorticoids_count sex labs_albumin_last_value labs_rdw_last_value labs_cpr_last_value labs_urea_blood_last_value labs_lym_percent_last_value labs_cholesterol_hdl_last_valu labs_chloride_last_value labs_createnine_blood_last_val pack_years CVD Diabetes Chronic_Respiratory_Disease Hypertension Cancer
feature_infos=[3651:42429] [0:34] [0:54] 1:0 [0:904] [0:22] [0:18] [0:53] [0:28] 1:2 [1.3:5.79] [9.9000000000000004:53.5] [0:38.369999999999997] [4.7999999999999998:353] [1:93.299999999999997] [6:147] [81:129] [0.050000000000000003:15.970000000000001] [0:1890] 1:0 1:0 1:0 1:0 1:0
tree_sizes=1224 1178 1196 1183 1235 1210 1200 1219 1169 1203 1223 1229 1197 1262 1212 1237 1180 1226 1234 1144 1227 1187 1218 1225 1199 1198 1244 1160 1128 1192 1191 1219 1228 1221 1205 1229 1167 1220 1273 1243 1222 1227 1184 1221 1182

Tree=0
num_leaves=14
num_cat=2
split_feature=1 0 4 10 19 16 0 21 10 14 0 12 18
split_gain=8504.2 3699.53 1093.5 667.735 316.236 177.737 154.121 95.5964 66.0116 57.7108 51.217 31.7263 22.5694
threshold=1.0000000180025095e-35 28154.500000000004 3.5000000000000004 4.0050000000000008 0 112.50000000000001 30010.500000000004 1 3.9650000000000003 26.950000000000003 13802.500000000002 0.48250000000000004 37.01111111111112
decision_type=2 2 2 8 1 8 2 1 8 8 2 10 10
left_child=1 2 4 -3 9 -6 -5 10 -9 -1 -7 12 -10
right_child=-2 3 -4 6 5 7 -8 8 11 -11 -12 -13 -14
leaf_value=-4.306031426841634 -3.6276319826740342 -3.9011575534937282 -4.1578102471623977 -4.3154316410955857 -4.3761057923162854 -4.458013236128747 -4.1246906288741227 -4.4155167316571919 -4.4841845288598794 -4.4034266000027342 -4.3769764717596686 -4.4183583837892701 -4.431976874170382
leaf_count=8562 11334 9326 10075 9299 15183 14150 8726 11734 311716 19295 12064 9476 11600
internal_value=0 -0.191397 -0.404926 3.08577 -0.479633 -0.549006 1.97216 -0.589923 -0.630848 0.450902 -0.0197055 -0.654835 -0.670572
internal_count=462540 451206 423855 27351 413780 385923 18025 370740 344526 27857 26214 332792 323316
cat_boundaries=0 1 2
cat_threshold=2 2
shrinkage=1


Tree=1
num_leaves=14
num_cat=5
split_feature=0 10 4 21 19 0 12 21 19 14 16 0 20
split_gain=4387.22 1131.52 960.799 612.497 341.358 195.072 170.241 91.7592 90.6062 80.4689 57.6976 55.8663 30.0968
threshold=27007.500000000004 3.6350000000000002 4.5000000000000009 0 1 31472.000000000004 0.71450000000000014 2 3 26.850000000000005 98.750000000000014 17716.500000000004 4
decision_type=2 8 2 1 1 2 10 1 1 8 10 2 1
left_child=2 -2 4 -3 9 8 7 11 -5 -1 12 -6 -9
right_child=1 3 -4 5 6 -7 -8 10 -10 -11 -12 -13 -14
leaf_value=0.11017081473165152 0.53063020122732263 0.37506224501196289 0.22458508905696428 0.13484591593620832 -0.034046309943178261 0.23576443178323048 0.052801681697596817 -0.022311067381539849 0.027837218906878503 0.0069056460100781272 0 0.056360319441710993 -0.066236323628004454
leaf_count=8737 5096 6880 8143 10397 17793 6355 11211 20857 14312 19134 11618 8099 313908
internal_value=0 2.26681 -0.376464 1.71874 -0.453966 1.18837 -0.534146 -0.571225 0.793726 0.453379 -0.613072 -0.0102905 -0.637089
internal_count=462540 43040 419500 37944 411357 31064 383486 372275 24709 27871 346383 25892 334765
cat_boundaries=0 1 2 3 4 5
cat_threshold=2 2 2 2 2
shrinkage=0.1


Tree=2
num_leaves=14
num_cat=1
split_feature=0 2 2 10 5 19 10 16 0 18 13 11 12
split_gain=2906.56 768.874 707.212 395.297 376.943 216.493 156.334 118.178 91.7064 48.8296 48.8058 37.2346 29.3212
threshold=26354.500000000004 1.0000000180025095e-35 1.0000000180025095e-35 3.7950000000000004 1.0000000180025095e-35 0 3.7650000000000001 95.050000000000011 29575.500000000004 37.01111111111112 56.050000000000004 13.825000000000003 0.68500000000000016
decision_type=2 2 2 8 2 1 8 10 2 10 8 10 10
left_child=1 3 4 -1 6 11 -2 9 -8 12 -10 -5 -7
right_child=2 -3 -4 5 -6 7 8 -9 10 -11 -12 -13 -14
leaf_value=0.13887075389328049 0.19258404928031431 0.22715692974471235 0.36985075430251224 0 0.29166376535829314 -0.062416822826979329 0.025464672543926259 0.019901453969490321 0.067260224168036481 -0 0.16831565730797962 0.073557410538643717 -0
leaf_count=7982 4469 7831 5044 17550 4431 336611 22180 14166 9148 13004 5084 7154 7886
internal_value=0 -0.36511 1.51771 -0.430724 1.17086 -0.480735 0.896393 -0.547581 0.661529 -0.58602 1.07653 0.257139 -0.608919
internal_count=462540 412184 50356 404353 45312 396371 40881 371667 36412 357501 14232 24704 344497
cat_boundaries=0 1
cat_threshold=2
shrinkage=0.1


Tree=3
num_leaves=14
num_cat=3
split_feature=19 10 6 0 3 0 12 14 13 21 10 11 16
split_gain=2122.63 582.187 495.658 254.483 239.738 220.072 107.005 97.2626 92.3927 52.6519 52.2202 41.3439 31.9322
threshold=0 3.8050000000000002 1.5000000000000002 25961.500000000004 1 28856.500000000004 0.17050000000000004 23.450000000000003 35.715000000000011 2 4.1350000000000007 14.025000000000002 95.950000000000017
decision_type=1 8 2 2 1 2 10 10 8 1 8 8 10
left_child=2 8 4 6 -1 10 9 -7 -2 -3 -6 -5 -11
right_child=1 3 -4 11 5 7 -8 -9 -10 12 -12 -13 -14
leaf_value=0.2353919079364738 0.054331008991241936 -0.0081669341276536991 0.29406074834343882 -0 0.077845277737348811 0.20098806673255157 0.0037345368559308862 0.080328074283735534 0.19268708441253368 -0.060583105148186892 0.0026149466579276654 0.061861555962058584 -0
leaf_count=4049 8937 23594 4732 12884 7931 5131 25705 7136 4067 313087 23306 12938 9043
internal_value=0 -0.328281 1.22664 -0.417946 0.941211 0.737736 -0.500105 1.35176 1.14702 -0.550064 0.27388 0.312849 -0.586378
internal_count=462540 410255 52285 397251 47553 43504 371429 12267 13004 345724 31237 25822 322130
cat_boundaries=0 1 2 3
cat_threshold=2 2 2
shrinkage=0.1


Tree=4
num_leaves=14
num_cat=2
split_feature=0 4 4 0 21 16 11 2 21 14 0 10 13
split_gain=1646.42 406.405 335.789 192.373 121.582 107.214 105.002 95.8996 82.2847 54.0616 47.7988 37.0112 30.7556
threshold=24253.500000000004 1.0000000180025095e-35 1.0000000180025095e-35 31106.500000000004 0 93.750000000000014 13.825000000000003 1.0000000180025095e-35 1 24.450000000000003 14923.500000000002 4.0950000000000006 56.050000000000004
decision_type=2 2 2 2 1 10 10 2 1 8 2 8 8
left_child=2 3 5 4 -2 8 -4 12 10 -6 -1 -10 -3
right_child=1 7 6 -5 9 -7 -8 -9 11 -11 -12 -13 -14
leaf_value=-0.035685902844689331 0.097761967595084404 0.0986164752311426 0.0055974935871296741 0.12008911635013714 0.053596488942687731 0.027687488563672581 0.1298130289171486 0.25159086189134089 -0.0068167533423047072 -0.0089434023055702024 0.046210606257855634 -0.058090392262915284 0.18683859827859189
leaf_count=15244 7628 8302 13144 9120 10388 12793 7276 2488 17229 38512 9453 308045 2918
internal_value=0 0.813458 -0.376646 0.498582 0.254458 -0.465094 0.605278 1.63253 -0.504696 0.0532421 0 -0.552031 1.29587
internal_count=462540 79356 383184 65648 56528 362764 20420 13708 349971 48900 24697 325274 11220
cat_boundaries=0 1 2
cat_threshold=2 2
shrinkage=0.1


Tree=5
num_leaves=14
num_cat=2
split_feature=0 3 11 12 0 10 4 16 21 0 0 14 15
split_gain=1412.12 381.753 226.258 215.391 146.59 97.7603 68.8849 58.8326 45.6771 39.2073 28.9914 28.6823 28.4061
threshold=23230.500000000004 0 14.750000000000002 0.52200000000000013 29005.500000000004 4.0950000000000006 1.0000000180025095e-35 109.10000000000001 1 32202.500000000004 13948.500000000002 21.250000000000004 51.250000000000007
decision_type=2 1 10 10 2 8 2 8 1 2 2 10 10
left_child=3 -2 4 5 6 -1 -3 -7 10 12 -9 -4 -6
right_child=1 2 11 -5 9 7 -8 8 -10 -11 -12 -13 -14
leaf_value=0.011034350631657395 0.18157476756330054 -0.013357907157167781 0.16884203596652494 0.055926157002385707 0.063045007394731054 0.0079309556989605855 0.065940561096615433 -0.041357170933739543 -0.057712599870141372 0.10705461303706294 0.023920414766595594 0.089114458231820529 0
leaf_count=19926 6673 51796 3460 14958 8986 9833 5746 14031 299622 4980 8235 9192 5102
internal_value=0 0.658624 0.482612 -0.394335 0.285193 -0.45837 0 -0.507884 -0.537878 0.662789 -0.0855322 1.18712 0.435627
internal_count=462540 95935 89262 366605 76610 351647 57542 331721 321888 19068 22266 12652 14088
cat_boundaries=0 1 2
cat_threshold=2 2
shrinkage=0.1


Tree=6
num_leaves=14
num_cat=3
split_feature=19 0 11 12 5 21 21 10 11 13 0 11 16
split_gain=1080.31 287.752 143.362 141.464 76.7843 63.7637 47.2444 44.8639 44.5645 39.0466 37.5801 27.717 22.8018
threshold=0 25514.500000000004 14.850000000000003 0.18050000000000005 1.0000000180025095e-35 1 2 3.7450000000000006 13.825000000000003 46.770000000000003 27819.500000000004 14.250000000000002 111.50000000000001
decision_type=1 2 10 10 2 1 1 8 10 8 2 10 8
left_child=2 3 4 5 6 -2 -1 -3 -5 -9 -8 12 -7
right_child=1 7 -4 8 -6 11 10 9 -10 -11 -12 -13 -14
leaf_value=0.079709775914594619 -0 0.085953692302589035 0.12925082955160999 -0.0030959444692961698 0.11565671920368592 -0.00038804166316950861 -0 -0.0027940607287721118 0.068611868460521627 0.049632191262593731 0.048012554293883007 -0.012659643557213787 -0.056180989327046897
leaf_count=6775 23946 2873 9267 18895 4326 8345 22536 19348 8451 11362 9531 24475 292410
internal_value=0 -0.278177 0.740807 -0.395984 0.530197 -0.464817 0.385829 0.312979 0.188134 0.162631 0.220018 -0.509541 -0.541329
internal_count=462540 410105 52435 376522 43168 349176 38842 33583 27346 30710 32067 325230 300755
cat_boundaries=0 1 2 3
cat_threshold=2 2 2
shrinkage=0.1


Tree=7
num_leaves=14
num_cat=3
split_feature=0 4 0 12 3 3 16 11 10 18 13 19 14
split_gain=868.61 253.746 128.979 122.27 65.7872 55.2415 47.9111 45.0714 39.595 35.1129 34.9859 25.5388 25.1378
threshold=20652.500000000004 1.0000000180025095e-35 29005.500000000004 0.69200000000000006 0 1 95.050000000000011 14.625000000000002 4.1950000000000012 3.9049999999999998 61.050000000000004 2 34.750000000000007
decision_type=2 2 2 10 1 1 10 10 10 10 10 1 10
left_child=3 2 4 6 -2 -3 9 11 -7 -1 12 -6 -4
right_child=1 5 10 -5 7 8 -8 -9 -10 -11 -12 -13 -14
leaf_value=-0.055591333692594641 0.073052124819748043 0.14989121274474923 0.049606871913323539 0.043221116597133152 0.0063535891286749307 0.084817346632842364 0.00090223208873787229 0.041107868251519825 0.0067156617988779789 -0.023172282189424995 0.10878763383891193 -0.027887706988650864 -0
leaf_count=242575 3947 2540 14604 9908 16736 11955 11637 8503 4374 62898 2362 67153 3348
internal_value=0 0.388934 0.189951 -0.406296 -0.00282359 0.894555 -0.456966 -0.0854824 0.718479 -0.490973 0.527477 -0.173675 0.402016
internal_count=462540 135522 116653 327018 96339 18869 317110 92392 16329 305473 20314 83889 17952
cat_boundaries=0 1 2 3
cat_threshold=2 2 2
shrinkage=0.1


Tree=8
num_leaves=14
num_cat=3
split_feature=0 10 3 19 16 13 10 0 9 14 18 11 14
split_gain=752.176 244.935 148.464 115.782 101.901 45.6603 43.9152 36.3162 28.362 22.3518 14.1302 14.7675 14.0159
threshold=19673.500000000004 3.7850000000000006 0 1 94.450000000000017 57.050000000000004 4.1450000000000005 27121.500000000004 2 25.250000000000004 37.01111111111112 13.825000000000003 27.050000000000004
decision_type=2 8 1 1 10 8 8 2 1 10 10 10 10
left_child=4 8 -3 5 6 9 -1 10 12 -4 11 -5 -2
right_child=1 2 3 7 -6 -7 -8 -9 -10 -11 -12 -13 -14
leaf_value=-0 0.088536274340575372 0.08759496614813804 0.041479075129591939 -0.038535369698739254 0.02549203200933018 0.071996267598829086 -0.050006576870628067 0.012753590823277365 0.12513995927534613 0 0.0016759120012799084 -0 0.032223439954197526
leaf_count=19768 3443 7048 9155 55637 13387 9308 279502 16791 4371 16236 10077 14536 3281
internal_value=0 0.341773 0.187647 0.0866497 -0.400056 0.364997 -0.458331 -0.117279 0.922582 0.186669 -0.244175 -0.300241 0.675069
internal_count=462540 149883 138788 131740 312657 34699 299270 97041 11095 25391 80250 70173 6724
cat_boundaries=0 1 2 3
cat_threshold=2 2 2
shrinkage=0.1


Tree=9
num_leaves=14
num_cat=2
split_feature=19 10 8 13 0 2 18 12 16 10 22 11 14
split_gain=601.246 216.589 90.0981 77.0933 71.9345 67.7119 50.4843 45.4013 41.3279 20.8985 27.8906 17.6542 14.3998
threshold=0 3.8050000000000002 1.5000000000000002 83.050000000000011 25514.500000000004 1.0000000180025095e-35 28.015625000000004 0.27100000000000007 94.450000000000017 3.6850000000000005 1 13.450000000000001 22.050000000000004
decision_type=1 8 2 10 2 2 10 10 10 10 1 10 10
left_child=3 11 4 5 6 7 8 9 -3 10 -1 -2 -6
right_child=1 2 -4 -5 12 -7 -8 -9 -10 -11 -12 -13 -14
leaf_value=0.051245294177719947 0.0066549824236841115 -0.046623262745682063 0.055932330080772918 0.1241360556624807 0.024426995042124804 0.087122147359778704 0.0040906445276238882 0.069860835320850689 0 0.0030864319323075534 -0 0.068391108081145832 -0.010970665780106553
leaf_count=10374 4952 327570 8088 2044 9085 4753 21041 6636 12292 21194 7570 8001 18940
internal_value=0 -0.22868 -0.304902 0.496314 -0.335559 0.419168 -0.396383 0.301221 -0.433385 0.187373 0.353398 0.521596 0
internal_count=462540 409969 397016 52571 388928 50527 360903 45774 339862 39138 17944 12953 28025
cat_boundaries=0 1 2
cat_threshold=2 2
shrinkage=0.1


Tree=10
num_leaves=14
num_cat=2
split_feature=0 5 14 12 21 0 8 18 11 11 18 10 20
split_gain=479.226 170.358 102.287 86.5436 61.8827 50.4241 40.087 28.5495 27.9571 25.4893 19.0227 17.2638 16.3752
threshold=20173.500000000004 1.0000000180025095e-35 20.450000000000003 0.080450000000000035 0 27544.500000000004 1.0000000180025095e-35 37.527777777777786 15.850000000000003 13.65 0.90833333333333344 4.0950000000000006 1
decision_type=2 2 8 10 1 2 2 10 8 8 10 10 1
left_child=3 2 9 6 11 7 10 12 -3 -2 -1 -4 -6
right_child=1 8 4 -5 5 -7 -8 -9 -10 -11 -12 -13 -14
leaf_value=-0.05173289823951184 0.0066569604462988407 0.056435567402332625 0.048248248210712302 0.01136434117934495 -0.0028010726947463251 0.01428430292126117 0.0083628985906624084 0.014198160916049389 0.12031076814458308 0.075524471368231441 -0.024867928336557914 0 -0.040235221907076568
leaf_count=212621 4680 6515 9269 26594 18145 22935 13362 11965 2459 8079 67232 5100 53584
internal_value=0 0.24574 0.132173 -0.349571 0.0362922 -0.0537485 -0.421634 -0.214885 0.783828 0.596189 -0.454622 0.356508 -0.299771
internal_count=462540 142731 133757 319809 120998 106629 293215 83694 8974 12759 279853 14369 71729
cat_boundaries=0 1 2
cat_threshold=2 2
shrinkage=0.1


Tree=11
num_leaves=14
num_cat=2
split_feature=0 2 4 15 5 14 0 12 21 18 20 11 8
split_gain=432.197 139.185 87.402 83.0093 68.1502 54.6624 35.6833 32.7803 31.9715 26.4075 24.4553 21.4313 18.1902
threshold=19673.500000000004 1.0000000180025095e-35 1.5000000000000002 29.500000000000004 1.0000000180025095e-35 21.650000000000002 32598.000000000004 0.24050000000000002 0 2.0062500000000005 1 14.025000000000002 1.5000000000000002
decision_type=2 2 2 8 2 8 2 10 1 10 1 10 2
left_child=2 3 7 -2 5 11 8 9 -7 -1 -10 -5 -3
right_child=1 12 -4 4 -6 6 -8 -9 10 -11 -12 -13 -14
leaf_value=-0.04782945143021778 0.10179163747695696 0.056723596655737833 0.0378882362969791 0.007256883818881359 0.05281909167036123 0.021134536967918043 0.041435887013875364 0 0.0018355569627176082 -0.017056689399553893 -0.025421021108347198 0.06156322317431373 0.11540642140969365
leaf_count=223007 3755 7625 10272 8834 6819 10194 3196 15114 26764 64139 75214 5545 2062
internal_value=0 0.250059 -0.320267 0.149452 0.106842 0.0350545 -0.0364475 -0.373521 -0.0868225 -0.410164 -0.156593 0.375738 0.730881
internal_count=462540 150008 312532 140321 136566 129747 115368 302260 112172 287146 101978 14379 9687
cat_boundaries=0 1 2
cat_threshold=2 2
shrinkage=0.1


Tree=12
num_leaves=14
num_cat=2
split_feature=0 3 11 16 10 0 17 18 10 14 8 23 14
split_gain=374.451 96.296 83.3048 72.3618 36.7205 34.3064 25.7733 19.9925 18.2973 17.9572 17.8214 16.7604 17.8035
threshold=19673.500000000004 0 14.15 112.50000000000001 4.1450000000000005 27414.500000000004 1.5650000000000002 19.962500000000002 3.5950000000000002 30.050000000000004 1.5000000000000002 1 21.450000000000003
decision_type=2 1 10 8 8 2 8 8 8 10 2 1 10
left_child=3 10 5 -1 -5 -3 8 -6 -4 -7 -2 -10 -13
right_child=1 2 6 4 7 9 -8 -9 11 -11 -12 12 -14
leaf_value=0.022814067226161125 0.048274007014867698 -0.012891644247178757 0.05936683476975612 0 -0.016060101212195733 0.025993294220678139 0.084160605004854838 -0.047120912650859839 0.047599710712950057 -0.003656626167818543 0.10922119353149812 0.039751940490241944 -0.0022000812744582374
leaf_count=13314 6951 86829 2486 19887 51530 15941 2108 227969 5558 8351 1459 3512 16645
internal_value=0 0.218414 0.138767 -0.31513 -0.372496 0 0.374847 -0.416256 0.291506 0.156924 0.6378 0.187144 0.0671454
internal_count=462540 149840 141430 312700 299386 111121 30309 279499 28201 24292 8410 25715 20157
cat_boundaries=0 1 2
cat_threshold=2 2
shrinkage=0.1


Tree=13
num_leaves=14
num_cat=1
split_feature=0 11 4 18 0 4 21 16 10 8 15 0 17
split_gain=273.843 83.0293 66.1383 53.0877 49.3178 34.6949 34.1245 28.7994 16.8784 16.4352 18.0875 15.8791 12.1864
threshold=20173.500000000004 14.750000000000002 1.0000000180025095e-35 44.977272727272741 29575.500000000004 4.5000000000000009 0 94.700000000000003 4.0650000000000004 1.5000000000000002 37.100000000000009 33664.000000000007 0.6625000000000002
decision_type=2 10 2 10 2 2 1 10 8 2 10 2 10
left_child=2 3 6 4 5 8 -1 -8 -2 10 -3 -6 -10
right_child=1 9 -4 -5 11 -7 7 -9 12 -11 -12 -13 -14
leaf_value=0.0045234626562743342 0.0043169612964759144 0.062453315117669467 0.02500715030340768 0.050094170093286421 0.014456069506690532 0.038377737333440548 -0.039635221443419452 0.002541706044873273 -0.0034611721197295216 0.08766261110925791 0.021882826393027705 0.057743653741329296 -0.031760521412384668
leaf_count=20705 13278 4958 14732 12747 14402 3108 274835 9504 34005 2119 10779 2128 45240
internal_value=0 0.191494 -0.265354 0.0900586 0.028475 -0.088339 -0.321181 -0.362016 -0.150867 0.47326 0.382643 0.230656 -0.220015
internal_count=462540 142764 319776 124908 112161 95631 305044 284339 92523 17856 15737 16530 79245
cat_boundaries=0 1
cat_threshold=2
shrinkage=0.1


Tree=14
num_leaves=14
num_cat=4
split_feature=10 0 12 21 20 16 15 9 17 20 10 18 14
split_gain=208.809 99.3622 50.5544 49.941 35.8534 32.7063 29.2353 24.8191 23.0858 17.5111 14.3793 12.8604 10.8501
threshold=4.1950000000000012 25249.500000000004 1.3550000000000002 0 1 93.750000000000014 37.100000000000009 2 0.85250000000000015 3 3.9650000000000003 8.0050000000000026 21.650000000000002
decision_type=8 2 10 1 1 10 10 1 8 1 10 10 8
left_child=2 3 4 11 10 9 -3 -6 -9 -5 -1 -2 -11
right_child=1 6 -4 5 7 -7 -8 8 -10 12 -12 -13 -14
leaf_value=0.047613588216428263 -0.00027838353753906339 0.033811401452703803 0.063527035632882978 -0.00021014536070882245 -0.0061856844428688218 0.0073940376507124622 -0.0010227031744518703 0.066868381735494004 0.0037287255918446896 -0 0.0072637464140346379 0.039433726328718312 -0.039701676608841698
leaf_count=8354 19897 13763 6123 19399 34213 11006 24962 5243 7546 14826 7712 5594 283902
internal_value=0 -0.157724 0.255779 -0.26148 0.173628 -0.313578 0.114209 0.0407105 0.272195 -0.348058 0.365085 0.100068 -0.377629
internal_count=462540 393349 69191 354624 63068 329133 38725 47002 12789 318127 16066 25491 298728
cat_boundaries=0 1 2 3 4
cat_threshold=2 2 2 2
shrinkage=0.1


Tree=15
num_leaves=14
num_cat=0
split_feature=0 2 14 12 17 5 15 8 18 15 0 18 10
split_gain=194.78 67.9038 56.9247 54.317 44.7302 42.9255 33.3046 26.7849 21.3385 19.9616 17.8038 13.9093 11.9749
threshold=19418.500000000004 1.5000000000000002 19.050000000000004 0.61250000000000016 1.5250000000000001 1.0000000180025095e-35 35.050000000000004 1.0000000180025095e-35 2.9875000000000003 45.250000000000007 31837.500000000004 27.003125000000004 4.0550000000000006
decision_type=2 2 8 10 10 2 8 2 10 10 2 10 8
left_child=3 2 -2 6 5 9 -1 8 -8 12 11 -11 -4
right_child=1 -3 4 -5 -6 -7 7 -9 -10 10 -12 -13 -14
leaf_value=0.020144382571286437 0.041816077008951319 0.056461669278384266 0.018617551916977653 0.02981993116055421 0.05423202839317072 0.034382640090999242 -0.042734366747749511 0.0083878160248723847 -0.011878214319981111 -0.029761634032659169 0.013103216305401268 0 -0.0037277190851222422
leaf_count=13490 10866 4881 10005 9725 2835 5894 216754 13163 55756 47167 2451 7383 62170
internal_value=0 0.142198 0.088313 -0.249861 0.0246427 -0.00609266 -0.297831 -0.331274 -0.363113 -0.062494 -0.175952 -0.237337 0.0176787
internal_count=462540 153652 148771 308888 137905 135070 299163 285673 272510 129176 57001 54550 72175
shrinkage=0.1


Tree=16
num_leaves=14
num_cat=2
split_feature=2 22 12 0 18 17 15 5 17 9 15 0 8
split_gain=186.868 126.562 46.5235 37.6226 36.0615 20.9029 16.4957 15.24 14.361 13.6561 13.3989 12.041 10.4334
threshold=1.0000000180025095e-35 0 0.11050000000000003 25340.500000000004 38.690909090909095 1.2450000000000003 38.150000000000006 1.0000000180025095e-35 0.87250000000000016 1 38.150000000000006 29005.500000000004 1.0000000180025095e-35
decision_type=2 1 10 2 10 10 8 2 10 1 10 2 2
left_child=1 5 4 -2 6 7 -3 -1 -9 -5 -4 12 -8
right_child=3 2 10 9 -6 -7 11 8 -10 -11 -12 -13 -14
leaf_value=0.0017749095143223634 0.096346497702918421 -0 0.031241683740554679 0.012950209645723534 0.018893933268311153 0.035390086678519062 -0.035468026352051846 0.050666094018949337 0 0.054356385928553699 -0.002337403318302296 -0 -0
leaf_count=66078 7126 23025 11529 3428 11597 7321 288515 2783 1763 2413 19541 3537 13884
internal_value=0 -0.0660293 -0.201922 0.510843 -0.257468 0.131812 -0.290447 0.0714357 0.298309 0.335439 0.0856191 -0.316836 -0.336017
internal_count=462540 449573 371628 12967 340558 77945 328961 70624 4546 5841 31070 305936 302399
cat_boundaries=0 1 2
cat_threshold=2 2
shrinkage=0.1


Tree=17
num_leaves=14
num_cat=1
split_feature=0 8 12 21 0 12 18 10 18 17 16 15 16
split_gain=153.639 78.1594 52.7875 39.2038 35.0609 34.7019 20.1102 18.8081 15.9283 15.5194 14.8301 11.3656 9.96024
threshold=17716.500000000004 4.5000000000000009 0.83250000000000013 0 27414.500000000004 0.9125000000000002 4.003571428571429 3.8050000000000002 48.010000000000012 0.65250000000000019 108.15000000000002 39.250000000000007 99.250000000000014
decision_type=2 2 10 1 2 10 10 8 10 8 8 8 10
left_child=5 2 3 -2 7 6 12 -5 9 -9 -4 -6 -1
right_child=1 -3 10 4 11 -7 -8 8 -10 -11 -12 -13 -14
leaf_value=-0.036452949557376484 0.022758923357699766 0.086395485715899112 0.066919937522286727 0.019796010579167342 0.02951521400091385 0.027808511891949234 -0.0036327639604717514 0 0.010666803607507578 -0.030820684730093431 0.020426954549195412 0.0024537027342732259 -0
leaf_count=218756 18891 2802 2803 4328 5044 6169 51286 18719 8036 87643 6604 24006 7453
internal_value=0 0.11648 0.0833344 0.0313869 -0.0328369 -0.24376 -0.281112 -0.15692 -0.203028 -0.248111 0.407034 0.093911 -0.339234
internal_count=462540 178876 176074 166667 147776 283664 277495 118726 114398 106362 9407 29050 226209
cat_boundaries=0 1
cat_threshold=2
shrinkage=0.1


Tree=18
num_leaves=14
num_cat=1
split_feature=11 0 8 21 16 18 18 0 10 15 12 15 18
split_gain=117.136 71.5432 30.654 25.8517 23.8763 25.6227 21.433 18.3304 18.1771 14.7399 14.3818 13.2969 12.3207
threshold=14.15 19673.500000000004 2.5000000000000004 0 94.450000000000017 15.758333333333336 11.010000000000003 32202.500000000004 3.8850000000000002 46.050000000000004 0.19100000000000003 31.500000000000004 22.988888888888891
decision_type=10 2 2 1 10 8 10 2 10 10 10 10 10
left_child=1 4 6 11 5 -1 9 10 -8 -2 12 -3 -5
right_child=2 3 -4 7 -6 -7 8 -9 -10 -11 -12 -13 -14
leaf_value=-0 0.017677658952317925 0.051261157264549342 0.06621778943627081 -0.020303062068895917 0.0067685193991939277 -0.035694431538605513 0.058925196200494773 0.022189556624656367 0.0058974416865099945 -0.005008102704094344 0.012082443233492356 0.008810413158469494 0.0026016693049915303
leaf_count=45314 26372 3373 2775 71507 10597 229656 5169 3549 6117 19854 10472 9905 17880
internal_value=0 -0.10743 0.216983 0.0165242 -0.257567 -0.296237 0.161864 -0.0451351 0.378448 0.0779681 -0.0946692 0.212715 -0.145831
internal_count=462540 402253 60287 116686 285567 274970 57512 103408 11286 46226 99859 13278 89387
cat_boundaries=0 1
cat_threshold=2
shrinkage=0.1


Tree=19
num_leaves=14
num_cat=3
split_feature=7 20 23 13 0 15 21 15 0 16 18 18 0
split_gain=103.161 88.0101 51.9422 35.2012 27.8747 26.115 22.9368 20.2922 19.3571 20.5662 11.3046 8.20436 6.93339
threshold=1.0000000180025095e-35 0 1 49.050000000000004 26161.500000000004 34.20000000000001 2 40.100000000000009 27544.500000000004 93.750000000000014 2.7550000000000003 46.628181818181822 13425.500000000002
decision_type=2 1 1 10 2 10 1 10 2 10 10 10 2
left_child=1 5 7 6 -2 -1 -4 -3 9 10 -8 -7 -12
right_child=4 2 3 -5 -6 11 8 -9 -10 -11 12 -13 -14
leaf_value=0.041386793292538804 0.085747729062931391 0.048768144461017911 0 0.01877490856094946 0.023574553120973417 0.0029556300586124577 -0.035709914415662743 0 -0 0 0 0.034446647464558507 -0.022340707613595683
leaf_count=14034 7875 6952 27477 5983 3670 34222 248128 11449 11589 13386 27364 3369 47042
internal_value=0 -0.0393009 -0.121919 -0.166608 0.474672 0.181204 -0.197856 0.20602 -0.234618 -0.271573 -0.303882 0.0780039 -0.14463
internal_count=462540 450995 399370 380969 11545 51625 374986 18401 347509 335920 322534 37591 74406
cat_boundaries=0 1 2 3
cat_threshold=2 2 2
shrinkage=0.1


Tree=20
num_leaves=14
num_cat=2
split_feature=8 10 0 0 9 18 18 17 16 21 0 15 15
split_gain=77.6652 66.2546 40.3088 30.8187 29.5687 24.9161 22.7401 16.6203 15.1413 11.2205 13.6893 11.3653 10.5743
threshold=2.5000000000000004 4.1950000000000012 25249.500000000004 28856.500000000004 0 43.005555555555567 2.0062500000000005 0.79250000000000009 99.250000000000014 1 28154.500000000004 36.050000000000004 29.500000000000004
decision_type=2 8 2 2 1 10 10 8 10 1 2 8 10
left_child=1 4 6 -2 9 -4 8 -6 -3 10 -1 -11 -9
right_child=3 2 5 -5 7 -7 -8 12 -10 11 -12 -13 -14
leaf_value=0.047545142778500755 0.080415899222791076 -0.029109885130038579 -0.00018338626827490257 0.0010552983466417122 0.059977296944248554 0.04758121207573527 -0.0027266861677569753 0.048320529765961982 0.0016678022668679526 0.023663946124995089 0 -0.010156950138315165 0.0087420622829225345
leaf_count=3687 5457 255827 34094 1241 5684 3825 88069 2120 7943 3109 2026 36286 13172
internal_value=0 -0.0275391 -0.117304 0.522728 0.119918 0.0488728 -0.191472 0.272081 -0.261692 0.00519385 0.182239 -0.0456898 0.17409
internal_count=462540 455842 389758 6698 66084 37919 351839 20976 263770 45108 5713 39395 15292
cat_boundaries=0 1 2
cat_threshold=2 2
shrinkage=0.1


Tree=21
num_leaves=14
num_cat=3
split_feature=11 7 0 18 11 16 20 1 9 20 17 18 0
split_gain=66.801 50.7905 33.255 30.3227 21.8263 17.6514 13.3303 10.5806 12.4564 9.08583 7.89788 8.16846 6.20621
threshold=14.15 1.0000000180025095e-35 30376.500000000004 37.01111111111112 16.250000000000004 112.50000000000001 0 3.5000000000000004 1 2 0.72500000000000009 6.753571428571429 33664.000000000007
decision_type=10 2 2 10 10 8 1 2 1 1 8 8 2
left_child=1 2 3 5 9 -1 -7 8 -6 -2 -8 -12 -4
right_child=4 -3 12 -5 7 6 10 -9 -10 -11 11 -13 -14
leaf_value=0.0019549662188148597 0.017732287116941869 0.040059327366416549 0.0026249670937222424 0.012109076046176517 0.021462346130297447 -0.00075569429971368584 -0.010112621541698737 0.0055943822696437736 0.081213898055477546 0 -0 -0.031275249680992101 0.033972150575764824
leaf_count=14961 14481 7795 7911 18887 6990 25361 67244 1174 2337 35463 20242 238066 1628
internal_value=0 -0.0830125 -0.113603 -0.155784 0.159807 -0.192282 -0.220458 0.374429 0.504554 0.0848801 -0.252231 -0.291199 0.113248
internal_count=462540 402095 394300 384761 60445 365874 350913 10501 9327 49944 325552 258308 9539
cat_boundaries=0 1 2 3
cat_threshold=2 2 2
shrinkage=0.1


Tree=22
num_leaves=14
num_cat=1
split_feature=19 11 5 4 17 0 8 17 18 17 11 13 0
split_gain=60.0891 49.9253 35.2557 18.5285 14.5651 12.3035 15.0744 9.98917 9.70094 12.3382 9.14196 6.79813 9.24217
threshold=0 14.950000000000001 1.0000000180025095e-35 1.0000000180025095e-35 0.61250000000000016 29744.500000000004 1.0000000180025095e-35 1.5250000000000001 2.0062500000000005 0.5525000000000001 16.250000000000004 25.985000000000003 26646.500000000004
decision_type=1 10 2 2 10 2 2 10 10 8 8 10 2
left_child=4 2 3 5 -1 6 8 10 9 -2 -6 -3 -13
right_child=1 11 -4 -5 7 -7 -8 -9 -10 -11 -12 12 -14
leaf_value=0.034528576495979312 0 0 0.03699551121534142 0.0082312568914463986 0.00036331195547193758 0 0.0013739299811054697 0.027838250414433753 -0.0095525749285457293 -0.0305369603361367 0.021671208697624539 0.062080924207623102 0.0076223967145921459
leaf_count=12117 18183 10642 5237 15409 31288 6327 21500 3149 81730 241888 5825 6963 2282
internal_value=0 -0.0814387 -0.126534 -0.152716 0.13802 -0.179834 -0.202742 0.0930891 -0.229014 -0.277703 0.0512127 0.272748 0.379768
internal_count=462540 410161 390274 385037 52379 369628 363301 40262 341801 260071 37113 19887 9245
cat_boundaries=0 1
cat_threshold=2
shrinkage=0.1


Tree=23
num_leaves=14
num_cat=1
split_feature=21 0 8 15 5 15 0 18 4 2 0 14 15
split_gain=52.7689 38.9418 18.2382 15.0612 12.2447 12.0665 11.2444 11.9793 11.0298 9.76325 9.70543 8.73389 15.9637
threshold=0 19418.500000000004 1.5000000000000002 38.150000000000006 1.0000000180025095e-35 29.500000000000004 32202.500000000004 42.035714285714299 1.0000000180025095e-35 1.0000000180025095e-35 27819.500000000004 25.950000000000003 45.250000000000007
decision_type=1 2 2 8 2 8 2 10 2 2 2 8 10
left_child=2 3 4 -2 -1 -3 7 9 -5 11 -4 -7 -13
right_child=1 5 10 8 -6 6 -8 -9 -10 -11 -12 12 -14
leaf_value=0.0040202497331654026 0.0061263635892444572 0.032353065002018837 0.068864038548645451 -0.024254762736219973 0.033475795035616332 0 0.016378153320475573 0.017199518212595303 0 0.01850030608059856 0.011410801838049076 -0.0010432408788989518 -0.028799348542933725
leaf_count=35450 22537 3485 2581 254603 2283 24407 5518 12530 10759 3034 948 46503 37902
internal_value=0 -0.0561703 0.179746 -0.178017 0.1099 0.0206177 0 -0.0268639 -0.213504 -0.0613687 0.454869 -0.0874971 -0.144478
internal_count=462540 421278 41262 287899 37733 133379 129894 124376 265362 111846 3529 108812 84405
cat_boundaries=0 1
cat_threshold=2
shrinkage=0.1


Tree=24
num_leaves=14
num_cat=3
split_feature=8 20 12 18 0 16 15 17 14 3 23 15 0
split_gain=60.6766 46.2754 33.6215 19.0267 16.7892 18.4653 14.9986 14.754 10.2566 8.83611 8.93826 8.02861 7.13339
threshold=4.5000000000000009 0 1.2010000000000003 52.019230769230774 32202.500000000004 92.100000000000009 34.20000000000001 0.61250000000000016 20.450000000000003 1 2 40.100000000000009 16131.500000000002
decision_type=2 1 10 10 2 10 10 8 10 1 1 10 2
left_child=1 6 3 4 5 7 -1 12 -8 -9 -11 -7 -3
right_child=-2 2 -4 -5 -6 11 8 9 -10 10 -12 -13 -14
leaf_value=0.027267822570180233 0.055977371726319648 -0.013728314146209803 0.022970882329407274 0.018069913420290639 0.0064172272255547669 0.024887435922931338 0.021044268445784265 0 -0.00076694913792212517 -0 -0.025946523531466155 -0.0061793446747748582 0.016213042573017009
leaf_count=14636 3570 29211 8643 7663 4221 7534 6176 2838 33030 12185 311098 7819 13916
internal_value=0 -0.0298305 -0.0935312 -0.123771 -0.143239 -0.167685 0.114998 -0.195289 0.0380034 -0.224059 -0.239287 0.0507559 0
internal_count=462540 458970 405128 396485 388822 384601 53842 369248 39206 326121 323283 15353 43127
cat_boundaries=0 1 2 3
cat_threshold=2 2 2
shrinkage=0.1


Tree=25
num_leaves=14
num_cat=1
split_feature=7 11 16 4 0 18 0 17 9 10 10 4 15
split_gain=46.4694 40.3696 28.1657 23.3445 25.7275 19.2466 15.6145 11.1353 10.2204 7.90557 7.0555 6.60048 4.87753
threshold=1.0000000180025095e-35 15.850000000000003 104.95000000000002 18.500000000000004 30376.500000000004 12.505000000000004 23584.500000000004 0.73250000000000004 0 3.7450000000000006 3.0050000000000003 5.5000000000000009 30.100000000000005
decision_type=2 10 8 2 2 10 2 8 1 8 10 2 10
left_child=1 2 -1 4 5 9 -2 -7 -3 -4 -6 -8 -9
right_child=6 8 3 -5 10 7 11 12 -10 -11 -12 -13 -14
leaf_value=0.023944954517457422 0.069774898895427345 0.0079411897272535469 0 0.038543788029111986 0.022300578559136461 0.023275559490151334 0.028125015905159395 0.0022838675964088158 0.04613284126233981 -0.018728297371938211 0 0 -0.013487471015473654
leaf_count=11702 6283 9312 5778 1574 4347 13182 4145 27458 3450 342972 8227 1089 23021
internal_value=0 -0.0180884 -0.0491405 -0.0730981 -0.0873935 -0.127024 0.312655 0 0.271091 -0.171109 0.0750559 0.176365 -0.0537289
internal_count=462540 451023 438261 426559 424985 412411 11517 63661 12762 348750 12574 5234 50479
cat_boundaries=0 1
cat_threshold=2
shrinkage=0.1


Tree=26
num_leaves=14
num_cat=1
split_feature=18 12 0 15 0 10 17 16 22 14 0 10 13
split_gain=31.8042 28.8144 24.3587 18.8702 18.0746 12.1546 10.4252 9.50879 8.60072 8.58125 7.18691 6.22773 5.32358
threshold=52.019230769230774 0.19100000000000003 7979.5000000000009 38.150000000000006 30010.500000000004 3.9950000000000006 0.82250000000000012 108.15000000000002 0 22.050000000000004 12912.500000000002 3.6850000000000005 49.050000000000004
decision_type=10 10 2 10 2 8 8 8 1 10 2 10 8
left_child=1 2 -1 6 5 -5 -4 -3 -8 -7 -10 -2 -11
right_child=11 7 3 4 -6 9 8 -9 10 12 -12 -13 -14
leaf_value=-0.037525407223079253 0.040333523755811965 0.024687079791470071 0.018110740483673889 0 0.002042090365650201 -0 0.0082512382962597122 0.0024943515893677084 0.00087906162980118895 -0.03151048959237971 -0.015738539924315668 0.0069490631095173372 -0.00049110580932756702
leaf_count=60368 6561 8073 29797 12751 9420 15872 19710 31058 71788 94911 81893 6180 14158
internal_value=0 -0.0332367 -0.0760908 -0.0504662 -0.122278 -0.186092 0.0212151 0.10874 -0.0115411 -0.235352 -0.0803837 0.259134 -0.278272
internal_count=462540 449799 410668 350300 147112 137692 203188 39131 173391 124941 153681 12741 109069
cat_boundaries=0 1
cat_threshold=2
shrinkage=0.1


Tree=27
num_leaves=14
num_cat=3
split_feature=21 11 19 23 0 14 0 10 13 15 4 14 15
split_gain=38.6436 27.0764 16.5487 13.3953 16.1219 14.3298 12.6412 14.28 8.82471 8.11002 8.10455 7.29442 6.5084
threshold=0 13.450000000000001 1 2 25787.500000000004 34.650000000000013 25628.000000000004 4.205000000000001 64.15000000000002 76.100000000000009 1.0000000180025095e-35 26.850000000000005 37.100000000000009
decision_type=1 10 1 1 2 10 2 8 8 8 2 10 8
left_child=6 2 -2 4 -3 8 7 -1 -5 -8 12 -9 -4
right_child=1 3 10 5 -6 -7 9 11 -10 -11 -12 -13 -14
leaf_value=0.051111974083218152 0.0019676735634483193 0.055290048003042352 0 -0 0.0037438504370649879 -0.021190521281049993 0 0.023468709566620619 0.021620869015298427 0.028454280979633519 0 -0.0035247810382171615 -0.02188383713739446
leaf_count=5928 20499 5988 15526 57090 6307 27000 8724 16062 10640 1827 9733 8851 268365
internal_value=0 -0.0550432 -0.13278 0.0305825 0.196375 -0.00795837 0.145193 0.279429 0.0356539 0.0519185 -0.179201 0.0958263 -0.200293
internal_count=462540 421148 314123 107025 12295 94730 41392 30841 67730 10551 293624 24913 283891
cat_boundaries=0 1 2 3
cat_threshold=2 2 2
shrinkage=0.1


Tree=28
num_leaves=14
num_cat=4
split_feature=8 17 20 7 13 23 10 21 22 18 11 15 17
split_gain=32.9355 25.1598 24.5331 19.3664 12.9218 11.1322 9.24098 8.56259 6.02003 5.52301 5.34212 5.29485 4.21309
threshold=4.5000000000000009 0.50500000000000012 0 1.0000000180025095e-35 46.770000000000003 1 3.5550000000000002 2 3 13.255000000000001 14.15 40.100000000000009 0.83250000000000013
decision_type=2 8 1 2 10 1 10 1 1 8 8 10 10
left_child=1 -1 6 4 5 11 8 -7 10 -9 -3 -4 -5
right_child=-2 2 3 12 -6 7 -8 9 -10 -11 -12 -13 -14
leaf_value=0.032003369338477326 0.039725585323195998 0 0.020877821456635304 0.033414459701224274 0.0043088565432482014 -0 -0 -0.00031604821946203847 -0 -0.020483192995992119 0.027858247517624918 -0.0047543004116041695 0
leaf_count=17013 3547 4954 5959 5239 10371 25838 30659 42733 8219 288685 7769 9390 2164
internal_value=0 -0.0245823 -0.0408514 -0.0898729 -0.111598 -0.13653 0.0624961 -0.158796 0.158972 -0.184569 0.209183 0.0243491 0.190031
internal_count=462540 458993 441980 390379 382976 372605 51601 357256 20942 331418 12723 15349 7403
cat_boundaries=0 1 2 3 4
cat_threshold=2 2 2 2
shrinkage=0.1


Tree=29
num_leaves=14
num_cat=1
split_feature=6 14 0 15 10 0 1 11 1 22 14 16 0
split_gain=27.9117 22.8076 16.7714 15.6807 14.9097 14.4814 14.0204 12.7974 11.4211 8.41113 8.21087 8.46319 5.8046
threshold=2.5000000000000004 26.850000000000005 7535.5000000000009 35.050000000000004 3.2050000000000005 29575.500000000004 3.5000000000000004 13.750000000000002 1.0000000180025095e-35 0 44.95000000000001 111.50000000000001 16954.500000000004
decision_type=2 8 2 10 10 2 2 8 2 1 8 8 2
left_child=1 7 -3 4 -4 10 -2 -1 12 -6 11 -5 -9
right_child=6 2 3 5 9 -7 -8 8 -10 -11 -12 -13 -14
leaf_value=-0.0022470366665701142 0.050700343309081131 -0.033440633435945798 -0.00057098618663915779 0 0.00057215851298116364 0.0039519087838588689 0 0 0 0.044045152057247836 0.0020629770983288083 -0.023011898231488762 0.025169607517436146
leaf_count=43704 2442 52269 165015 6990 4836 8359 772 16365 4049 12857 14189 108002 22691
internal_value=0 -0.00490694 -0.0591172 -0.034976 0.0399153 -0.105026 0.320358 0.0821252 0.143552 0.247944 -0.164125 -0.194612 0.213339
internal_count=462540 459326 372517 320248 182708 137540 3214 86809 43105 17693 129181 114992 39056
cat_boundaries=0 1
cat_threshold=2
shrinkage=0.1


Tree=30
num_leaves=14
num_cat=0
split_feature=16 0 18 15 0 2 0 14 10 13 13 13 0
split_gain=28.2697 16.3049 12.9866 12.3522 12.3583 8.80664 11.6119 6.94952 6.37257 4.81637 5.26773 4.44472 6.81144
threshold=104.95000000000002 7330.5000000000009 40.986111111111121 50.100000000000009 32598.000000000004 1.0000000180025095e-35 26740.500000000004 29.650000000000002 4.1150000000000011 35.020000000000003 27.815000000000001 37.010000000000012 25628.000000000004
decision_type=8 2 10 10 2 2 2 8 10 10 8 8 2
left_child=9 -2 3 5 7 -3 -7 11 -4 10 -1 12 -5
right_child=1 2 8 4 -6 6 -8 -9 -10 -11 -12 -13 -14
leaf_value=0.022238192229714578 -0.029419251780489392 -0.0012494996337393119 0.019616472215787373 -0 0.015363582850605887 0.043523659573765194 0 -0.02610683041752845 -0 0.034785222025961633 -0.0026122809894832066 0.0014408433410179086 -0.033339629249516507
leaf_count=5680 52184 284662 15444 18432 1612 4242 2175 50594 5903 4530 3804 9279 3999
internal_value=0 -0.0189393 -0.00401552 -0.0265734 -0.120764 0.00368278 0.160434 -0.163938 0.134952 0.23594 0.0681763 -0.0517762 -0.14966
internal_count=462540 448526 396342 374995 83916 291079 6417 82304 21347 14014 9484 31710 22431
shrinkage=0.1


Tree=31
num_leaves=14
num_cat=2
split_feature=18 7 13 0 15 17 1 0 13 0 0 23 21
split_gain=20.6229 17.1442 14.3736 14.23 17.0806 20.3218 13.7839 13.2628 8.15304 8.1372 8.25563 8.77196 8.89011
threshold=55.828571428571429 1.0000000180025095e-35 54.045000000000009 33664.000000000007 43.20000000000001 0.72500000000000009 4.5000000000000009 26161.500000000004 18.345000000000002 7330.5000000000009 11822.500000000002 0 1
decision_type=10 2 10 2 10 8 2 2 10 2 2 1 1
left_child=1 2 3 4 5 8 -4 -3 -1 -7 -11 -12 -13
right_child=-2 7 6 -5 -6 9 -8 -9 -10 10 11 12 -14
leaf_value=-0 0.022425732875688779 0.039297636129901337 0.023363326128347139 0.023547396668649898 -0.016629850167698797 -0.030783352393869142 -0.0062147797058778893 0 0.023671009559226169 0.00870099725457593 0.0096976151734515029 0.0034802576913158818 -0.01626604131833095
leaf_count=12552 11048 7457 7290 1877 134764 41267 2112 3315 29091 67938 7007 8575 128247
internal_value=0 -0.021811 -0.0425065 -0.066064 -0.0798057 -0.0202036 0.100571 0.162803 0.158678 -0.0729537 -0.0449932 -0.0836187 -0.119564
internal_count=462540 451492 440720 431318 429441 294677 9402 10772 41643 253034 211767 143829 136822
cat_boundaries=0 1 2
cat_threshold=2 2
shrinkage=0.1


Tree=32
num_leaves=14
num_cat=1
split_feature=6 0 14 11 21 16 10 11 4 15 14 12 0
split_gain=25.4579 19.9713 13.4778 12.6924 8.1175 6.61743 10.7199 5.36638 6.09881 5.27956 5.15223 5.12533 5.92381
threshold=1.5000000000000002 24870.500000000004 26.850000000000005 16.250000000000004 0 101.95000000000002 4.3850000000000007 12.825000000000003 3.5000000000000004 33.150000000000006 29.650000000000002 0.81300000000000006 33089.500000000007
decision_type=2 2 8 10 1 10 10 8 2 10 8 10 2
left_child=2 -2 5 4 9 6 7 -1 -9 -4 -3 12 -6
right_child=1 10 3 -5 11 -7 -8 8 -10 -11 -12 -13 -14
leaf_value=-0.0023012193495485873 0.048451582222010604 -0 0.015425163252516364 0.027350627208729564 -0.012573576465376091 -0.0077654078326352682 -0.01200546493693829 0.017627778450665054 -0 -0.0032609643785130767 0.023327782754037862 0.0058744215638713874 0.0067355453593934984
leaf_count=9583 4732 2925 15641 4722 328265 7674 15302 49251 2216 13224 1431 5856 1718
internal_value=0 0.20089 -0.0129992 -0.0556274 -0.0710457 0.0569639 0.0868134 0.123953 0.146978 0.0238066 0.0582055 -0.0987952 -0.111773
internal_count=462540 9088 453452 369426 364704 84026 76352 61050 51467 28865 4356 335839 329983
cat_boundaries=0 1
cat_threshold=2
shrinkage=0.1


Tree=33
num_leaves=14
num_cat=1
split_feature=8 16 17 17 5 13 14 13 9 0 15 15 13
split_gain=23.4198 18.5604 20.0887 14.9182 11.9947 13.9777 10.9653 8.20442 5.95113 7.68135 8.22606 5.50092 4.36714
threshold=4.5000000000000009 100.55000000000001 0.50500000000000012 1.5150000000000003 1.0000000180025095e-35 29.045000000000005 15.050000000000002 56.050000000000004 0 27414.500000000004 31.500000000000004 38.150000000000006 38.040000000000006
decision_type=2 8 8 10 2 10 8 10 1 2 10 8 10
left_child=1 -1 -3 4 6 -6 -4 8 11 10 -10 -8 -11
right_child=-2 2 3 -5 5 -7 7 -9 9 12 -12 -13 -14
leaf_value=0.0334212761307957 0.033918027746965056 0.028669969180308633 0.016067004475698376 0.016554182311053458 0.035117957925559946 -0 0 0.0075578939848687347 -0 0.016295698658720079 -0.017634251888912586 -0.01641312044179229 -0.0013136157311246393
leaf_count=3172 3530 16903 6485 4110 4420 5736 10516 4466 123497 6266 71542 197764 4133
internal_value=0 -0.0100748 -0.0227868 -0.0379705 -0.0550474 0.077432 -0.0761312 -0.0892001 -0.102515 -0.0494723 -0.0904563 -0.146347 0.060101
internal_count=462540 459010 455838 438935 434825 10156 424669 418184 413718 205438 195039 208280 10399
cat_boundaries=0 1
cat_threshold=2
shrinkage=0.1


Tree=34
num_leaves=14
num_cat=1
split_feature=8 17 0 14 15 7 3 1 13 2 0 0 0
split_gain=17.1524 14.9328 14.49 13.3551 10.7645 8.51032 12.2449 7.83603 5.22943 8.66448 4.73202 5.55369 6.22581
threshold=2.5000000000000004 0.46500000000000002 26740.500000000004 12.65 29.500000000000004 1.0000000180025095e-35 0 1.0000000180025095e-35 37.350000000000001 1.0000000180025095e-35 30376.500000000004 13205.500000000002 6490.5000000000009
decision_type=2 8 2 8 8 2 1 2 10 2 2 2 2
left_child=1 -1 -2 -3 -5 6 7 -6 9 10 11 12 -8
right_child=2 3 -4 4 5 -7 8 -9 -10 -11 -12 -13 -14
leaf_value=0.034004767992534567 0.04540073584595497 0.025668637975530123 0 0.018542855078435623 0.021282799715824238 0.0094565294233213918 -0.023082903490359782 -0.0044913220851835181 -0.00081376554034023939 0.013003175282712505 0 -0.017323596109864791 -0
leaf_count=8929 4766 4271 1841 7159 5549 9657 40756 1009 44481 4664 5442 190451 133565
internal_value=0 -0.00962126 0.230875 -0.020333 -0.0322523 -0.0445049 -0.0591096 0.101182 -0.0784887 -0.103279 -0.117847 -0.132726 -0.0464645
internal_count=462540 455933 6607 447004 442733 435574 425917 6558 419359 374878 370214 364772 174321
cat_boundaries=0 1
cat_threshold=2
shrinkage=0.1


Tree=35
num_leaves=14
num_cat=1
split_feature=8 11 16 18 17 0 0 12 2 17 14 1 20
split_gain=20.3264 13.7448 12.6097 9.83039 8.43088 7.65889 6.25856 5.90337 5.80269 7.26528 5.45474 5.23125 4.31334
threshold=4.5000000000000009 16.250000000000004 100.85000000000001 7.9966666666666679 0.70250000000000012 33664.000000000007 23109.500000000004 0.26050000000000006 1.0000000180025095e-35 0.74250000000000016 31.050000000000004 3.5000000000000004 0
decision_type=2 10 8 10 8 2 2 10 2 10 10 2 1
left_child=1 2 -1 5 6 8 -5 -2 12 -10 -6 -3 -4
right_child=7 11 3 4 10 -7 -8 -9 9 -11 -12 -13 -14
leaf_value=0.027641407907082766 0.049944790456941279 0.025275414787082968 -0.00062462050978668747 0.037758565504789704 0.0038634270468026772 0.011412005913849761 0 0.0022855204539179003 0.025564680897574927 -0.0046081462432548421 -0.014212289433311036 0 -0.011608928213917668
leaf_count=3016 2111 8850 32036 10859 55287 2303 4166 1370 3623 2877 16190 1033 318819
internal_value=0 -0.00496327 -0.0223926 -0.0334582 0.0390538 -0.0633832 0.214297 0.314373 -0.0774019 0.0336408 -0 0.172079 -0.0928307
internal_count=462540 459059 449176 446160 86502 359658 15025 3481 357355 6500 71477 9883 350855
cat_boundaries=0 1
cat_threshold=2
shrinkage=0.1


Tree=36
num_leaves=14
num_cat=4
split_feature=5 22 17 14 20 7 14 9 17 11 11 15 21
split_gain=15.6118 17.075 14.5648 10.7014 8.67293 7.97314 6.96887 6.7858 20.0094 11.9981 10.3918 6.82939 5.93421
threshold=1.0000000180025095e-35 0 1.7350000000000001 15.550000000000002 1 1.0000000180025095e-35 29.825000000000006 2 0.85250000000000015 13.125000000000002 14.250000000000002 43.20000000000001 3
decision_type=2 1 10 8 1 2 8 1 8 10 8 8 1
left_child=2 6 3 -1 -5 7 -2 11 9 -9 -10 -6 -13
right_child=1 -3 -4 4 5 -7 -8 8 10 -11 -12 12 -14
leaf_value=0.01787502747219084 -0 0.044972137500578331 0.027779304867085627 0.0035502414031444289 0 0.013569032131412216 0.021853419373828023 -0 -0.024721143270855565 0.037791128741339969 -0.00066786723336690181 -0 -0.018756992909931519
leaf_count=8905 4665 5405 2290 47544 19907 6915 2564 17859 35845 15189 116426 12506 166520
internal_value=0 0.143848 -0.00762054 -0.0213623 -0.0357947 -0.0654207 0.0522065 -0.0800455 -0.0167029 0.201325 -0.0931668 -0.127276 -0.156017
internal_count=462540 12634 449906 447616 438711 391167 7229 384252 185319 33048 152271 198933 179026
cat_boundaries=0 1 2 3 4
cat_threshold=2 2 2 2
shrinkage=0.1


Tree=37
num_leaves=14
num_cat=1
split_feature=23 0 13 0 18 15 18 14 10 12 16 0 15
split_gain=13.2834 31.3734 9.62601 8.00492 7.48213 5.72616 5.41348 6.91765 5.32195 7.78103 7.72295 5.33052 4.60368
threshold=0 26013.500000000004 28.250000000000004 33664.000000000007 6.0068181818181827 41.150000000000006 17.893055555555559 36.45000000000001 4.2325000000000008 0.055000000000000007 107.05000000000001 30376.500000000004 35.050000000000004
decision_type=1 2 10 2 10 10 10 8 8 10 8 2 10
left_child=1 5 -3 4 8 -1 7 -6 9 -2 -11 12 -10
right_child=3 2 -4 -5 6 -7 -8 -9 11 10 -12 -13 -14
leaf_value=0.062003562847385167 0.006804411346045737 0.027253814298838403 -0.0053882409922793965 0.018766526432211893 0.029169543020888505 0.014869833828004515 0 -0 -0.0045588830147738103 0.0029670041943328281 -0.019448236051404021 0.0043529603240994403 -0.017946155813129458
leaf_count=6801 39775 2722 9412 2176 14905 8800 53209 21644 186186 3307 12511 3752 97340
internal_value=0 0.123011 0 -0.0112936 -0.0226406 0.423515 0.0389234 0.155948 -0.0518177 -0 -0.0965167 -0.0875868 -0.108529
internal_count=462540 27735 12134 434805 432629 15601 89758 36549 342871 55593 15818 287278 283526
cat_boundaries=0 1
cat_threshold=2
shrinkage=0.1


Tree=38
num_leaves=14
num_cat=1
split_feature=6 23 0 0 16 1 12 10 0 0 10 11 11
split_gain=11.6866 7.69484 9.99495 8.29245 8.60553 10.3883 10.4836 9.87936 4.99192 7.73113 4.66704 4.68083 4.15751
threshold=3.5000000000000004 0 25787.500000000004 33664.000000000007 92.100000000000009 1.0000000180025095e-35 1.3550000000000002 4.3750000000000009 7802.5000000000009 11892.500000000002 3.7950000000000004 15.350000000000003 14.425000000000002
decision_type=2 1 2 2 10 2 8 10 2 2 8 10 8
left_child=1 2 12 4 7 6 -6 8 -3 -10 11 -11 -1
right_child=-2 3 -4 -5 5 -7 -8 -9 9 10 -12 -13 -14
leaf_value=0.0016643669903315421 0.029225340883033041 -0.01867561523034425 0.00083348420887443837 0.019355768882996692 0.038034139141776772 -0.012317293346303382 0.0016451121082489348 -0.019867209021908694 0.012190854100884612 0.013556432405774539 -0.0052820464494314143 -0.0063414193588575973 0.042208028832884908
leaf_count=8764 1409 50771 12498 2118 6583 1235 13492 54298 82023 5957 215950 1455 5987
internal_value=0 0.00412106 0.0938782 -0.0111896 -0.0228887 0.0838114 0.166448 -0.0440103 -0.02113 -0.00731391 -0.0307619 0.0549425 0.276164
internal_count=462540 461131 27249 433882 431764 21310 20075 410454 356156 305385 223362 7412 14751
cat_boundaries=0 1
cat_threshold=2
shrinkage=0.1


Tree=39
num_leaves=14
num_cat=1
split_feature=13 2 1 23 15 0 18 16 17 10 15 14 11
split_gain=11.4633 11.334 15.8897 10.3994 8.83501 5.25572 6.91105 5.906 4.71337 4.31167 3.45351 4.26626 6.12252
threshold=83.050000000000011 1.0000000180025095e-35 1.0000000180025095e-35 0 40.100000000000009 33089.500000000007 8.7041666666666693 104.45000000000002 0.84250000000000014 4.3450000000000006 48.050000000000004 33.550000000000004 15.625000000000002
decision_type=10 2 2 1 10 2 10 8 10 10 8 8 8
left_child=1 3 8 4 -1 6 7 -5 -3 10 11 12 -9
right_child=-2 2 -4 5 -6 -7 -8 9 -10 -11 -12 -13 -14
leaf_value=0.023005843026114289 0.020953436821417593 0.033288677606057436 -0.0036195274893391694 0.0055478990506329729 -0 0.010552563802195044 0.0014676753986305247 -0.013731043348535804 0.0026920008753901267 -0.02337361730077861 -0.0102588820248917 0.011256464386198692 0.010416220780758018
leaf_count=9470 2700 7556 2134 8577 15586 2574 74991 28541 2861 45766 234063 21953 5768
internal_value=0 0 0.116963 -0.0192785 0.0943227 -0.0423822 -0.0534443 -0.0808489 0.24308 -0.0970102 -0.0734574 -0 -0.0634133
internal_count=462540 459840 12551 447289 25056 422233 419659 344668 10417 336091 290325 56262 34309
cat_boundaries=0 1
cat_threshold=2
shrinkage=0.1


Tree=40
num_leaves=14
num_cat=2
split_feature=8 7 17 2 13 23 0 0 17 0 15 9 17
split_gain=10.2064 7.41436 9.41766 6.84857 7.40244 5.1671 5.88032 7.20262 10.1135 9.81395 9.26175 7.09487 11.5699
threshold=8.5000000000000018 1.0000000180025095e-35 0.85250000000000015 1.5000000000000002 61.050000000000004 0 27121.500000000004 13205.500000000002 0.70250000000000012 7896.5000000000009 46.050000000000004 1 0.85250000000000015
decision_type=2 2 10 2 10 1 2 2 10 2 8 1 10
left_child=1 3 -3 4 5 -1 7 9 10 -7 -9 -8 -13
right_child=-2 2 -4 -5 -6 6 11 8 -10 -11 -12 12 -14
leaf_value=0.0029250030464347265 0.028306728308816753 0.026143058865885745 -0 0.011925550531125016 0.0086404022022041529 -0.01964407180400245 -0.0068530741083350586 0.013028411153627899 -0.022378368871952409 0.0045827681978508764 -0.010885299721793446 0.033641405833987142 -0
leaf_count=23383 1932 7513 3783 3985 5774 59238 15356 18717 78824 127012 107246 3850 5927
internal_value=0 -0.00670681 0.107125 -0.0211565 -0.0332441 -0.0485546 -0.0646648 -0.0907962 -0.132648 -0.00472169 -0.0407621 0 0.11167
internal_count=462540 460608 11296 449312 445327 439553 416170 391037 204787 186250 125963 25133 9777
cat_boundaries=0 1 2
cat_threshold=2 2
shrinkage=0.1


Tree=41
num_leaves=14
num_cat=0
split_feature=18 17 0 8 7 0 2 15 15 13 14 17 10
split_gain=11.7103 10.7491 9.95213 7.26682 5.88887 10.1676 6.85839 5.43516 4.32637 6.90198 7.72765 6.81884 5.739
threshold=45.02083333333335 0.51250000000000007 16226.500000000002 8.5000000000000018 1.0000000180025095e-35 26161.500000000004 1.5000000000000002 46.050000000000004 29.500000000000004 83.050000000000011 19.050000000000004 1.155 3.9950000000000006
decision_type=10 8 2 2 2 2 2 8 10 8 10 8 8
left_child=1 2 -1 4 6 -6 8 -2 11 10 -10 12 -3
right_child=7 3 -4 -5 5 -7 -8 -9 9 -11 -12 -13 -14
leaf_value=-0 0.00075115036192318176 -0.00069128462690850982 0.036723314715172338 0.021760960872620819 0.029310831855864701 -0.0016755648149467128 0.010808603079186019 0.024614844032771966 0.0004033635646283578 0.0035675120878216407 -0.013865654961546856 -0.0057319337567055114 0.020833053796795658
leaf_count=13509 8134 2604 5896 1646 6533 3045 2877 9648 13327 19293 160072 193124 22832
internal_value=0 -0.0174793 0.182122 -0.0308748 -0.0392578 0.0670022 -0.0526414 0.135341 -0.0644269 -0.0912049 -0.11202 -0.00976683 0.106554
internal_count=462540 444758 19405 425353 423707 9578 414129 17782 411252 192692 173399 218560 25436
shrinkage=0.1


Tree=42
num_leaves=14
num_cat=2
split_feature=17 20 14 0 14 9 15 17 0 11 11 11 15
split_gain=10.8693 7.79124 7.56413 5.88207 7.59524 7.54713 9.75615 7.08292 7.69037 6.18633 6.14796 6.13376 5.427
threshold=0.50500000000000012 0 11.850000000000003 6490.5000000000009 17.750000000000004 1 50.100000000000009 0.72500000000000009 29280.500000000004 13.925000000000002 13.125000000000002 13.925000000000002 43.20000000000001
decision_type=8 1 10 2 10 1 8 8 2 10 10 8 10
left_child=12 2 -2 -3 -5 6 11 -7 10 -10 -9 -6 -1
right_child=1 3 -4 4 5 7 -8 8 9 -11 -12 -13 -14
leaf_value=0.037323892996324791 0.025435620928825221 -0.02443518453857791 0.0017824219385232773 0.0037784505755015727 0.013073793739936224 0.025125178911996067 -0.018715151575414594 -0.022288133816508099 0.029851603558495157 -0 -0 -0.010564476042768535 0
leaf_count=8248 6726 41010 45969 163642 22419 7894 74437 34046 2148 1614 30464 15056 8867
internal_value=0 -0.00558286 0.0487647 -0.0352436 -0.022847 -0.0612547 -0.114694 0 -0.0240812 0.114473 -0.0971465 0 0.217527
internal_count=462540 445425 52695 392730 351720 188078 111912 76166 68272 3762 64510 37475 17115
cat_boundaries=0 1 2
cat_threshold=2 2
shrinkage=0.1


Tree=43
num_leaves=14
num_cat=0
split_feature=14 11 6 0 1 13 14 7 15 13 1 18 0
split_gain=7.37371 4.90038 5.49341 4.81692 8.70674 9.02893 10.2099 9.88414 9.20149 5.23156 4.49801 4.02037 4.43669
threshold=46.625000000000007 17.450000000000003 3.5000000000000004 33089.500000000007 1.0000000180025095e-35 38.940000000000005 28.550000000000004 1.0000000180025095e-35 67.100000000000009 84.050000000000011 10.500000000000002 12.991666666666667 23012.500000000004
decision_type=10 10 2 2 2 10 10 2 10 8 2 10 2
left_child=1 2 3 4 5 7 -7 8 11 10 -6 -1 -13
right_child=-2 -3 -4 -5 9 6 -8 -9 -10 -11 -12 12 -14
leaf_value=-0.0050331249396160498 0.026067602104228933 0.015495319160619145 0.020378619039269841 0.010361796592109493 -0.022516666953928784 0.018278981944821089 -0.0023804750018367416 0.021556867960449293 -0.031051821689666005 0 -0 0.012304647026254509 -0.0030876220261055153
leaf_count=316511 11587 4532 1177 3949 5209 18831 20180 7063 15561 1857 1650 41328 13105
internal_value=0 0.0034318 -0.000992985 -0.00855757 -0.0193325 0 0.0927267 -0.0264159 -0.0434263 -0.120374 -0.170154 -0.0258241 0.0364645
internal_count=462540 450953 446421 445244 441295 432579 39011 393568 386505 8716 6859 370944 54433
shrinkage=0.1


Tree=44
num_leaves=14
num_cat=0
split_feature=17 0 14 12 4 15 1 13 10 13 13 13 18
split_gain=5.88916 6.16908 5.88509 4.62087 9.95298 9.01823 8.03488 6.45885 6.1605 7.04746 4.90654 4.08917 5.85035
threshold=0.45500000000000007 6617.5000000000009 18.050000000000004 0.19100000000000003 3.5000000000000004 48.050000000000004 1.5000000000000002 58.050000000000004 3.6850000000000005 27.250000000000004 42.955000000000005 51.050000000000004 138.37500000000003
decision_type=8 2 10 10 2 10 2 10 10 10 8 8 8
left_child=-1 -2 -3 7 5 10 -6 8 11 -10 -5 12 -4
right_child=1 2 3 4 6 -7 -8 -9 9 -11 -12 -13 -14
leaf_value=0.024279839520841756 -0.018891316875574504 0.0065917537568470908 0.018638401228575446 0.032645708647270774 0.0012407251170983302 -0 -0.027213254490141066 0.0089768740450427344 0 -0.014965917336246415 0 -0.011173039815978728 -0
leaf_count=7586 44119 174637 16919 14194 3726 10885 931 5060 49262 66810 3765 23217 41429
internal_value=0 0.00661151 0.0146584 -0.00649812 0.0510551 0.142 -0.0620687 -0.0317269 -0.0548251 -0.0995212 0.235689 8.95104e-06 0.0498064
internal_count=462540 454954 410835 236198 33501 28844 4657 202697 197637 116072 17959 81565 58348
shrinkage=0.1


end of trees

feature importances:
age_in_days=102
labs_cholesterol_hdl_last_valu=44
labs_albumin_last_value=40
pack_years=40
labs_lym_percent_last_value=38
labs_rdw_last_value=36
labs_createnine_blood_last_val=34
labs_urea_blood_last_value=31
labs_chloride_last_value=30
labs_cpr_last_value=23
Chronic_Respiratory_Disease=23
meds_glucocorticoids_count=19
hosps_total_duration=16
meds_anticholinergics_count=14
Diabetes=13
meds_sulfonamides_count=12
CVD=11
ambulances_between_hospitals_c=10
diag_wheezing_dyspnea_count=10
sex=10
Cancer=10
COPD_by_chr=8
Hypertension=6
hosps_total_count=5

parameters:
[boosting: gbdt]
[objective: binary]
[metric: auc]
[tree_learner: serial]
[device_type: cpu]
[data: ]
[valid: ]
[num_iterations: 100]
[learning_rate: 0.1]
[num_leaves: 14]
[num_threads: -1]
[max_depth: -1]
[min_data_in_leaf: 60]
[min_sum_hessian_in_leaf: 100]
[bagging_fraction: 0.755144]
[bagging_freq: 1]
[bagging_seed: 3]
[feature_fraction: 1]
[feature_fraction_seed: 2]
[early_stopping_round: 0]
[max_delta_step: 0]
[lambda_l1: 10]
[lambda_l2: 0.1]
[min_gain_to_split: 0]
[drop_rate: 0.1]
[max_drop: 50]
[skip_drop: 0.5]
[xgboost_dart_mode: 0]
[uniform_drop: 0]
[drop_seed: 4]
[top_rate: 0.2]
[other_rate: 0.1]
[min_data_per_group: 100]
[max_cat_threshold: 32]
[cat_l2: 10]
[cat_smooth: 10]
[max_cat_to_onehot: 4]
[top_k: 20]
[monotone_constraints: ]
[feature_contri: ]
[forcedsplits_filename: ]
[refit_decay_rate: 0.9]
[verbosity: -1]
[max_bin: 255]
[min_data_in_bin: 3]
[bin_construct_sample_cnt: 200000]
[histogram_pool_size: -1]
[data_random_seed: 1]
[output_model: LightGBM_model.txt]
[snapshot_freq: -1]
[input_model: ]
[output_result: LightGBM_predict_result.txt]
[initscore_filename: ]
[valid_data_initscores: ]
[pre_partition: 0]
[enable_bundle: 1]
[max_conflict_rate: 0]
[is_enable_sparse: 1]
[sparse_threshold: 0.8]
[use_missing: 1]
[zero_as_missing: 0]
[two_round: 0]
[save_binary: 0]
[enable_load_from_binary_file: 1]
[header: 0]
[label_column: ]
[weight_column: ]
[group_column: ]
[ignore_column: ]
[categorical_feature: ]
[predict_raw_score: 0]
[predict_leaf_index: 0]
[predict_contrib: 0]
[num_iteration_predict: -1]
[pred_early_stop: 0]
[pred_early_stop_freq: 10]
[pred_early_stop_margin: 10]
[convert_model_language: ]
[convert_model: gbdt_prediction.cpp]
[num_class: 1]
[is_unbalance: 0]
[scale_pos_weight: 1]
[sigmoid: 1]
[boost_from_average: 1]
[reg_sqrt: 0]
[alpha: 0.9]
[fair_c: 1]
[poisson_max_delta_step: 0.7]
[tweedie_variance_power: 1.5]
[max_position: 20]
[label_gain: ]
[metric_freq: 1]
[is_provide_training_metric: 0]
[eval_at: ]
[num_machines: 1]
[local_listen_port: 12400]
[time_out: 120]
[machine_list_filename: ]
[machines: ]
[gpu_platform_id: -1]
[gpu_device_id: -1]
[gpu_use_dp: 0]

end of parameters

pandas_categorical:[]
